<?xml version="1.0"?>
<opencv_storage>
<cascade>
  <stageType>BOOST</stageType>
  <featureType>HAAR</featureType>
  <height>24</height>
  <width>24</width>
  <stageParams>
    <boostType>GAB</boostType>
    <minHitRate>9.9500000476837158e-01</minHitRate>
    <maxFalseAlarm>5.0000000000000000e-01</maxFalseAlarm>
    <weightTrimRate>9.4999998807907104e-01</weightTrimRate>
    <maxDepth>1</maxDepth>
    <maxWeakCount>100</maxWeakCount></stageParams>
  <featureParams>
    <maxCatCount>0</maxCatCount>
    <featSize>1</featSize>
    <mode>BASIC</mode></featureParams>
  <stageNum>15</stageNum>
  <stages>
    <!-- stage 0 -->
    <_>
      <maxWeakCount>17</maxWeakCount>
      <stageThreshold>-1.3679462671279907e+00</stageThreshold>
      <weakClassifiers>
        <_>
          <internalNodes>
            0 -1 696 3.9535663090646267e-03</internalNodes>
          <leafValues>
            -2.2214673459529877e-01 6.3356643915176392e-01</leafValues></_>
        <_>
          <internalNodes>
            0 -1 321 -4.3033901602029800e-03</internalNodes>
          <leafValues>
            5.8782696723937988e-01 -1.6998137533664703e-01</leafValues></_>
        <_>
          <internalNodes>
            0 -1 322 7.2324583306908607e-03</internalNodes>
          <leafValues>
            -1.6628088057041168e-01 6.5747499465942383e-01</leafValues></_>
        <_>
          <internalNodes>
            0 -1 694 -4.7557307407259941e-03</internalNodes>
          <leafValues>
            6.8938612937927246e-01 -1.4662265777587891e-01</leafValues></_>
        <_>
          <internalNodes>
            0 -1 422 1.7647066852077842e-03</internalNodes>
          <leafValues>
            -1.2435058504343033e-01 5.6263363361358643e-01</leafValues></_>
        <_>
          <internalNodes>
            0 -1 569 2.1238410845398903e-03</internalNodes>
          <leafValues>
            -1.2936156988143921e-01 6.1957621574401855e-01</leafValues></_>
        <_>
          <internalNodes>
            0 -1 68 1.1387889832258224e-01</internalNodes>
          <leafValues>
            1.7297200858592987e-01 -4.9260252714157104e-01</leafValues></_>
        <_>
          <internalNodes>
            0 -1 734 -1.5311649767681956e-03</internalNodes>
          <leafValues>
            -4.1523620486259460e-01 1.7254023253917694e-01</leafValues></_>
        <_>
          <internalNodes>
            0 -1 357 -2.8483951464295387e-03</internalNodes>
          <leafValues>
            5.6490004062652588e-01 -1.1933747678995132e-01</leafValues></_>
        <_>
          <internalNodes>
            0 -1 324 5.1480084657669067e-03</internalNodes>
          <leafValues>
            -1.1179092526435852e-01 6.0418814420700073e-01</leafValues></_>
        <_>
          <internalNodes>
            0 -1 61 4.1011096909642220e-03</internalNodes>
          <leafValues>
            -7.5441300868988037e-02 6.7328995466232300e-01</leafValues></_>
        <_>
          <internalNodes>
            0 -1 492 1.4453700277954340e-03</internalNodes>
          <leafValues>
            2.2051215171813965e-01 -3.2553470134735107e-01</leafValues></_>
        <_>
          <internalNodes>
            0 -1 601 4.3393447995185852e-03</internalNodes>
          <leafValues>
            -1.3157220184803009e-01 5.4270726442337036e-01</leafValues></_>
        <_>
          <internalNodes>
            0 -1 221 -1.3855009339749813e-02</internalNodes>
          <leafValues>
            4.6222051978111267e-01 -1.2894259393215179e-01</leafValues></_>
        <_>
          <internalNodes>
            0 -1 361 -1.1438418179750443e-02</internalNodes>
          <leafValues>
            3.7646794319152832e-01 -1.6095449030399323e-01</leafValues></_>
        <_>
          <internalNodes>
            0 -1 213 2.3298181593418121e-02</internalNodes>
          <leafValues>
            -6.1065528541803360e-02 6.8703335523605347e-01</leafValues></_>
        <_>
          <internalNodes>
            0 -1 1 1.8981298489961773e-04</internalNodes>
          <leafValues>
            1.4690120518207550e-01 -3.5655656456947327e-01</leafValues></_></weakClassifiers></_>
    <!-- stage 1 -->
    <_>
      <maxWeakCount>20</maxWeakCount>
      <stageThreshold>-1.4396009445190430e+00</stageThreshold>
      <weakClassifiers>
        <_>
          <internalNodes>
            0 -1 484 6.1013957019895315e-04</internalNodes>
          <leafValues>
            -1.9819819927215576e-01 7.5317603349685669e-01</leafValues></_>
        <_>
          <internalNodes>
            0 -1 484 -4.5574456453323364e-04</internalNodes>
          <leafValues>
            6.9535440206527710e-01 -1.3667649030685425e-01</leafValues></_>
        <_>
          <internalNodes>
            0 -1 48 4.9854055978357792e-03</internalNodes>
          <leafValues>
            -1.1858060210943222e-01 6.5596449375152588e-01</leafValues></_>
        <_>
          <internalNodes>
            0 -1 29 -4.7015449963510036e-03</internalNodes>
          <leafValues>
            6.2928634881973267e-01 -1.5410663187503815e-01</leafValues></_>
        <_>
          <internalNodes>
            0 -1 625 6.8445205688476563e-02</internalNodes>
          <leafValues>
            -1.4758884906768799e-01 5.7383984327316284e-01</leafValues></_>
        <_>
          <internalNodes>
            0 -1 441 2.5829798541963100e-03</internalNodes>
          <leafValues>
            -1.2265088409185410e-01 6.0363072156906128e-01</leafValues></_>
        <_>
          <internalNodes>
            0 -1 677 4.1145258583128452e-03</internalNodes>
          <leafValues>
            -9.4785906374454498e-02 5.8211749792098999e-01</leafValues></_>
        <_>
          <internalNodes>
            0 -1 447 -1.8190681003034115e-03</internalNodes>
          <leafValues>
            6.0468572378158569e-01 -1.2475721538066864e-01</leafValues></_>
        <_>
          <internalNodes>
            0 -1 575 1.2932836543768644e-03</internalNodes>
          <leafValues>
            -8.1641055643558502e-02 6.8403267860412598e-01</leafValues></_>
        <_>
          <internalNodes>
            0 -1 207 -6.7493598908185959e-04</internalNodes>
          <leafValues>
            6.4292865991592407e-01 -7.7545709908008575e-02</leafValues></_>
        <_>
          <internalNodes>
            0 -1 133 -9.8216183483600616e-02</internalNodes>
          <leafValues>
            -5.4045969247817993e-01 1.2874256074428558e-01</leafValues></_>
        <_>
          <internalNodes>
            0 -1 132 6.7713186144828796e-02</internalNodes>
          <leafValues>
            1.5686863660812378e-01 -6.0519802570343018e-01</leafValues></_>
        <_>
          <internalNodes>
            0 -1 354 3.1183003447949886e-03</internalNodes>
          <leafValues>
            -8.7136082351207733e-02 8.0959075689315796e-01</leafValues></_>
        <_>
          <internalNodes>
            0 -1 550 -4.0236273780465126e-03</internalNodes>
          <leafValues>
            4.7328820824623108e-01 -1.3141003251075745e-01</leafValues></_>
        <_>
          <internalNodes>
            0 -1 350 -2.5833453983068466e-03</internalNodes>
          <leafValues>
            7.4978482723236084e-01 -8.7120793759822845e-02</leafValues></_>
        <_>
          <internalNodes>
            0 -1 403 1.1074844747781754e-02</internalNodes>
          <leafValues>
            1.6683039069175720e-01 -4.6745410561561584e-01</leafValues></_>
        <_>
          <internalNodes>
            0 -1 65 -5.9370972216129303e-02</internalNodes>
          <leafValues>
            3.7971863150596619e-01 -2.0969645678997040e-01</leafValues></_>
        <_>
          <internalNodes>
            0 -1 690 -1.2443382292985916e-03</internalNodes>
          <leafValues>
            7.2692137956619263e-01 -6.8919144570827484e-02</leafValues></_>
        <_>
          <internalNodes>
            0 -1 637 6.6107040038332343e-04</internalNodes>
          <leafValues>
            -8.5179790854454041e-02 7.0655298233032227e-01</leafValues></_>
        <_>
          <internalNodes>
            0 -1 154 -1.3359151780605316e-03</internalNodes>
          <leafValues>
            7.9920554161071777e-01 -6.2520116567611694e-02</leafValues></_></weakClassifiers></_>
    <!-- stage 2 -->
    <_>
      <maxWeakCount>27</maxWeakCount>
      <stageThreshold>-1.2533888816833496e+00</stageThreshold>
      <weakClassifiers>
        <_>
          <internalNodes>
            0 -1 477 3.7991688586771488e-03</internalNodes>
          <leafValues>
            -1.4061082899570465e-01 7.5000000000000000e-01</leafValues></_>
        <_>
          <internalNodes>
            0 -1 485 -1.7955475486814976e-03</internalNodes>
          <leafValues>
            7.3277354240417480e-01 -1.2274310737848282e-01</leafValues></_>
        <_>
          <internalNodes>
            0 -1 458 1.2740308884531260e-03</internalNodes>
          <leafValues>
            1.6911569237709045e-01 -4.1426596045494080e-01</leafValues></_>
        <_>
          <internalNodes>
            0 -1 71 -1.8828038871288300e-01</internalNodes>
          <leafValues>
            4.4745552539825439e-01 -1.1908207833766937e-01</leafValues></_>
        <_>
          <internalNodes>
            0 -1 697 3.1375270336866379e-03</internalNodes>
          <leafValues>
            -8.4862209856510162e-02 5.6391012668609619e-01</leafValues></_>
        <_>
          <internalNodes>
            0 -1 702 -9.8240282386541367e-04</internalNodes>
          <leafValues>
            7.2376900911331177e-01 -1.0084594041109085e-01</leafValues></_>
        <_>
          <internalNodes>
            0 -1 513 -4.0761614218354225e-04</internalNodes>
          <leafValues>
            4.9004000425338745e-01 -1.0366483032703400e-01</leafValues></_>
        <_>
          <internalNodes>
            0 -1 233 9.2080421745777130e-04</internalNodes>
          <leafValues>
            -4.0799200534820557e-02 8.0651015043258667e-01</leafValues></_>
        <_>
          <internalNodes>
            0 -1 28 -2.2170036099851131e-03</internalNodes>
          <leafValues>
            -3.4520173072814941e-01 1.5873549878597260e-01</leafValues></_>
        <_>
          <internalNodes>
            0 -1 397 -3.2538655214011669e-03</internalNodes>
          <leafValues>
            4.4301739335060120e-01 -1.2126183509826660e-01</leafValues></_>
        <_>
          <internalNodes>
            0 -1 90 2.0798381883651018e-03</internalNodes>
          <leafValues>
            -6.5736643970012665e-02 7.2719889879226685e-01</leafValues></_>
        <_>
          <internalNodes>
            0 -1 538 -4.6223104000091553e-03</internalNodes>
          <leafValues>
            8.5279756784439087e-01 -5.0328932702541351e-02</leafValues></_>
        <_>
          <internalNodes>
            0 -1 320 -2.6264530606567860e-03</internalNodes>
          <leafValues>
            3.6265423893928528e-01 -1.3640640676021576e-01</leafValues></_>
        <_>
          <internalNodes>
            0 -1 553 1.1407216638326645e-01</internalNodes>
          <leafValues>
            7.5488373637199402e-02 -7.2882896661758423e-01</leafValues></_>
        <_>
          <internalNodes>
            0 -1 708 1.3902790378779173e-03</internalNodes>
          <leafValues>
            -8.3841435611248016e-02 6.7319899797439575e-01</leafValues></_>
        <_>
          <internalNodes>
            0 -1 291 -7.2152689099311829e-02</internalNodes>
          <leafValues>
            -5.6466817855834961e-01 9.3011431396007538e-02</leafValues></_>
        <_>
          <internalNodes>
            0 -1 36 2.0220302045345306e-01</internalNodes>
          <leafValues>
            7.9947598278522491e-02 -5.8028519153594971e-01</leafValues></_>
        <_>
          <internalNodes>
            0 -1 17 1.2664720416069031e-01</internalNodes>
          <leafValues>
            8.1521548330783844e-02 -5.7660043239593506e-01</leafValues></_>
        <_>
          <internalNodes>
            0 -1 337 -1.0820631869137287e-03</internalNodes>
          <leafValues>
            6.5249931812286377e-01 -7.4876189231872559e-02</leafValues></_>
        <_>
          <internalNodes>
            0 -1 369 9.5438491553068161e-04</internalNodes>
          <leafValues>
            -5.7510767132043839e-02 6.6043174266815186e-01</leafValues></_>
        <_>
          <internalNodes>
            0 -1 598 -8.9398622512817383e-02</internalNodes>
          <leafValues>
            4.6469730138778687e-01 -9.3695826828479767e-02</leafValues></_>
        <_>
          <internalNodes>
            0 -1 144 1.6970653086900711e-03</internalNodes>
          <leafValues>
            1.2878385186195374e-01 -3.5607627034187317e-01</leafValues></_>
        <_>
          <internalNodes>
            0 -1 705 -3.2774184364825487e-03</internalNodes>
          <leafValues>
            5.7977384328842163e-01 -7.8323155641555786e-02</leafValues></_>
        <_>
          <internalNodes>
            0 -1 137 -4.3600983917713165e-03</internalNodes>
          <leafValues>
            5.4432433843612671e-01 -7.6946444809436798e-02</leafValues></_>
        <_>
          <internalNodes>
            0 -1 153 2.7122940868139267e-02</internalNodes>
          <leafValues>
            8.3622604608535767e-02 -6.2281793355941772e-01</leafValues></_>
        <_>
          <internalNodes>
            0 -1 111 -3.0379332602024078e-02</internalNodes>
          <leafValues>
            -6.6072833538055420e-01 6.0772500932216644e-02</leafValues></_>
        <_>
          <internalNodes>
            0 -1 129 2.3735277354717255e-03</internalNodes>
          <leafValues>
            -1.4799198508262634e-01 3.0213680863380432e-01</leafValues></_></weakClassifiers></_>
    <!-- stage 3 -->
    <_>
      <maxWeakCount>37</maxWeakCount>
      <stageThreshold>-1.3087553977966309e+00</stageThreshold>
      <weakClassifiers>
        <_>
          <internalNodes>
            0 -1 449 6.0202402528375387e-04</internalNodes>
          <leafValues>
            -1.7232112586498260e-01 4.5747801661491394e-01</leafValues></_>
        <_>
          <internalNodes>
            0 -1 621 -7.8772939741611481e-03</internalNodes>
          <leafValues>
            7.2530853748321533e-01 -6.4787238836288452e-02</leafValues></_>
        <_>
          <internalNodes>
            0 -1 687 -1.0197102092206478e-03</internalNodes>
          <leafValues>
            6.0838067531585693e-01 -1.0290809720754623e-01</leafValues></_>
        <_>
          <internalNodes>
            0 -1 284 3.5138870589435101e-04</internalNodes>
          <leafValues>
            -1.0291147977113724e-01 4.2497712373733521e-01</leafValues></_>
        <_>
          <internalNodes>
            0 -1 284 -5.2096031140536070e-04</internalNodes>
          <leafValues>
            4.5327129960060120e-01 -8.8317833840847015e-02</leafValues></_>
        <_>
          <internalNodes>
            0 -1 728 7.1391370147466660e-04</internalNodes>
          <leafValues>
            1.6248993575572968e-01 -2.7114886045455933e-01</leafValues></_>
        <_>
          <internalNodes>
            0 -1 318 -9.5933735370635986e-02</internalNodes>
          <leafValues>
            5.8502489328384399e-01 -7.2978883981704712e-02</leafValues></_>
        <_>
          <internalNodes>
            0 -1 303 -4.3158009066246450e-04</internalNodes>
          <leafValues>
            4.5013654232025146e-01 -8.3735272288322449e-02</leafValues></_>
        <_>
          <internalNodes>
            0 -1 273 8.2017779350280762e-03</internalNodes>
          <leafValues>
            -4.4247027486562729e-02 7.8027999401092529e-01</leafValues></_>
        <_>
          <internalNodes>
            0 -1 515 2.1085678599774837e-03</internalNodes>
          <leafValues>
            -7.6793521642684937e-02 5.0593501329421997e-01</leafValues></_>
        <_>
          <internalNodes>
            0 -1 706 2.7310163713991642e-03</internalNodes>
          <leafValues>
            -7.6287798583507538e-02 5.4013621807098389e-01</leafValues></_>
        <_>
          <internalNodes>
            0 -1 271 -1.0446337983012199e-02</internalNodes>
          <leafValues>
            8.0820137262344360e-01 -3.8300920277833939e-02</leafValues></_>
        <_>
          <internalNodes>
            0 -1 496 2.2397600114345551e-03</internalNodes>
          <leafValues>
            1.2805730104446411e-01 -3.5117617249488831e-01</leafValues></_>
        <_>
          <internalNodes>
            0 -1 605 -7.6856749365106225e-04</internalNodes>
          <leafValues>
            4.9995428323745728e-01 -8.3552166819572449e-02</leafValues></_>
        <_>
          <internalNodes>
            0 -1 605 1.0284607997164130e-03</internalNodes>
          <leafValues>
            -5.9428419917821884e-02 6.4025825262069702e-01</leafValues></_>
        <_>
          <internalNodes>
            0 -1 200 2.7506696060299873e-03</internalNodes>
          <leafValues>
            -5.5567834526300430e-02 5.5695629119873047e-01</leafValues></_>
        <_>
          <internalNodes>
            0 -1 494 7.6181557960808277e-04</internalNodes>
          <leafValues>
            1.1524820327758789e-01 -3.3671560883522034e-01</leafValues></_>
        <_>
          <internalNodes>
            0 -1 400 -1.7116950824856758e-02</internalNodes>
          <leafValues>
            -3.7417420744895935e-01 1.1512659490108490e-01</leafValues></_>
        <_>
          <internalNodes>
            0 -1 396 -1.3167615979909897e-03</internalNodes>
          <leafValues>
            3.6537325382232666e-01 -8.9549534022808075e-02</leafValues></_>
        <_>
          <internalNodes>
            0 -1 313 -6.9677745923399925e-03</internalNodes>
          <leafValues>
            2.4271516501903534e-01 -1.8965360522270203e-01</leafValues></_>
        <_>
          <internalNodes>
            0 -1 342 -4.5508909970521927e-03</internalNodes>
          <leafValues>
            3.9126616716384888e-01 -1.1417753994464874e-01</leafValues></_>
        <_>
          <internalNodes>
            0 -1 704 -3.3441672567278147e-03</internalNodes>
          <leafValues>
            4.7150653600692749e-01 -6.3606455922126770e-02</leafValues></_>
        <_>
          <internalNodes>
            0 -1 713 -8.8615535059943795e-04</internalNodes>
          <leafValues>
            -2.8872844576835632e-01 1.2937134504318237e-01</leafValues></_>
        <_>
          <internalNodes>
            0 -1 695 -3.0125800985842943e-03</internalNodes>
          <leafValues>
            6.5003246068954468e-01 -7.1905657649040222e-02</leafValues></_>
        <_>
          <internalNodes>
            0 -1 95 4.1504003107547760e-02</internalNodes>
          <leafValues>
            8.1466726958751678e-02 -5.3933310508728027e-01</leafValues></_>
        <_>
          <internalNodes>
            0 -1 180 6.7207135260105133e-02</internalNodes>
          <leafValues>
            7.5948879122734070e-02 -4.6360135078430176e-01</leafValues></_>
        <_>
          <internalNodes>
            0 -1 542 -1.5575119759887457e-03</internalNodes>
          <leafValues>
            3.3457115292549133e-01 -1.2625832855701447e-01</leafValues></_>
        <_>
          <internalNodes>
            0 -1 224 -4.7835752367973328e-02</internalNodes>
          <leafValues>
            -6.1317443847656250e-01 6.1865400522947311e-02</leafValues></_>
        <_>
          <internalNodes>
            0 -1 543 2.3584887385368347e-03</internalNodes>
          <leafValues>
            -1.2929326295852661e-01 3.0284839868545532e-01</leafValues></_>
        <_>
          <internalNodes>
            0 -1 13 -5.1788914203643799e-01</internalNodes>
          <leafValues>
            6.6713774204254150e-01 -6.0482736676931381e-02</leafValues></_>
        <_>
          <internalNodes>
            0 -1 389 -1.8978127045556903e-03</internalNodes>
          <leafValues>
            3.0731827020645142e-01 -1.1611396819353104e-01</leafValues></_>
        <_>
          <internalNodes>
            0 -1 315 -1.6133492812514305e-02</internalNodes>
          <leafValues>
            3.6982697248458862e-01 -8.9767917990684509e-02</leafValues></_>
        <_>
          <internalNodes>
            0 -1 128 5.1863908767700195e-01</internalNodes>
          <leafValues>
            -5.6305292993783951e-02 6.2525075674057007e-01</leafValues></_>
        <_>
          <internalNodes>
            0 -1 489 1.9865613430738449e-03</internalNodes>
          <leafValues>
            -5.1574092358350754e-02 6.2321561574935913e-01</leafValues></_>
        <_>
          <internalNodes>
            0 -1 699 2.0345337688922882e-03</internalNodes>
          <leafValues>
            -6.3551999628543854e-02 4.7854420542716980e-01</leafValues></_>
        <_>
          <internalNodes>
            0 -1 595 2.8584070969372988e-03</internalNodes>
          <leafValues>
            -2.9123663902282715e-02 9.3521881103515625e-01</leafValues></_>
        <_>
          <internalNodes>
            0 -1 194 -1.2026465265080333e-03</internalNodes>
          <leafValues>
            8.0104893445968628e-01 -3.0620614066720009e-02</leafValues></_></weakClassifiers></_>
    <!-- stage 4 -->
    <_>
      <maxWeakCount>40</maxWeakCount>
      <stageThreshold>-1.0486719608306885e+00</stageThreshold>
      <weakClassifiers>
        <_>
          <internalNodes>
            0 -1 283 -1.3812039047479630e-02</internalNodes>
          <leafValues>
            2.5000000000000000e-01 -2.2217519581317902e-01</leafValues></_>
        <_>
          <internalNodes>
            0 -1 192 -7.9298362135887146e-02</internalNodes>
          <leafValues>
            3.3975648880004883e-01 -1.4644163846969604e-01</leafValues></_>
        <_>
          <internalNodes>
            0 -1 374 -2.5508352555334568e-03</internalNodes>
          <leafValues>
            1.5422043204307556e-01 -2.9538077116012573e-01</leafValues></_>
        <_>
          <internalNodes>
            0 -1 623 7.8497074544429779e-02</internalNodes>
          <leafValues>
            -7.1857854723930359e-02 4.2267996072769165e-01</leafValues></_>
        <_>
          <internalNodes>
            0 -1 114 9.9989520385861397e-03</internalNodes>
          <leafValues>
            -1.6274516284465790e-01 2.4851922690868378e-01</leafValues></_>
        <_>
          <internalNodes>
            0 -1 270 -2.1611686795949936e-02</internalNodes>
          <leafValues>
            2.9033982753753662e-01 -1.7004880309104919e-01</leafValues></_>
        <_>
          <internalNodes>
            0 -1 14 2.8356891125440598e-02</internalNodes>
          <leafValues>
            8.8566467165946960e-02 -5.9611982107162476e-01</leafValues></_>
        <_>
          <internalNodes>
            0 -1 597 2.9029533267021179e-02</internalNodes>
          <leafValues>
            -1.2749074399471283e-01 3.0502441525459290e-01</leafValues></_>
        <_>
          <internalNodes>
            0 -1 391 -5.7131294161081314e-03</internalNodes>
          <leafValues>
            3.9280596375465393e-01 -9.0800583362579346e-02</leafValues></_>
        <_>
          <internalNodes>
            0 -1 622 -2.0620573312044144e-02</internalNodes>
          <leafValues>
            4.5976233482360840e-01 -8.1774994730949402e-02</leafValues></_>
        <_>
          <internalNodes>
            0 -1 155 3.1623721122741699e-02</internalNodes>
          <leafValues>
            -4.0944311767816544e-02 7.9346871376037598e-01</leafValues></_>
        <_>
          <internalNodes>
            0 -1 212 1.1059206910431385e-02</internalNodes>
          <leafValues>
            -1.4205373823642731e-01 2.4050778150558472e-01</leafValues></_>
        <_>
          <internalNodes>
            0 -1 727 3.0910584609955549e-04</internalNodes>
          <leafValues>
            1.1960083246231079e-01 -3.4332033991813660e-01</leafValues></_>
        <_>
          <internalNodes>
            0 -1 244 -1.3819541782140732e-02</internalNodes>
          <leafValues>
            4.0955191850662231e-01 -9.3308426439762115e-02</leafValues></_>
        <_>
          <internalNodes>
            0 -1 419 3.6598239094018936e-03</internalNodes>
          <leafValues>
            -1.2140555679798126e-01 2.8358060121536255e-01</leafValues></_>
        <_>
          <internalNodes>
            0 -1 707 5.1368940621614456e-03</internalNodes>
          <leafValues>
            -5.4519686847925186e-02 5.8173567056655884e-01</leafValues></_>
        <_>
          <internalNodes>
            0 -1 726 1.9226048607379198e-04</internalNodes>
          <leafValues>
            1.2495730817317963e-01 -2.7818140387535095e-01</leafValues></_>
        <_>
          <internalNodes>
            0 -1 240 3.1375527381896973e-02</internalNodes>
          <leafValues>
            -8.1528224050998688e-02 4.4697499275207520e-01</leafValues></_>
        <_>
          <internalNodes>
            0 -1 539 -5.6390529498457909e-03</internalNodes>
          <leafValues>
            2.4141156673431396e-01 -1.1084137111902237e-01</leafValues></_>
        <_>
          <internalNodes>
            0 -1 582 6.3885715790092945e-03</internalNodes>
          <leafValues>
            5.3658396005630493e-02 -6.4879512786865234e-01</leafValues></_>
        <_>
          <internalNodes>
            0 -1 365 -1.2935532256960869e-02</internalNodes>
          <leafValues>
            2.6660031080245972e-01 -1.1814624816179276e-01</leafValues></_>
        <_>
          <internalNodes>
            0 -1 451 -1.5118235722184181e-02</internalNodes>
          <leafValues>
            2.2541941702365875e-01 -1.3403131067752838e-01</leafValues></_>
        <_>
          <internalNodes>
            0 -1 739 -1.0865730291698128e-04</internalNodes>
          <leafValues>
            -2.6123031973838806e-01 1.1807821691036224e-01</leafValues></_>
        <_>
          <internalNodes>
            0 -1 483 -3.5191848874092102e-03</internalNodes>
          <leafValues>
            2.3320075869560242e-01 -1.2683288753032684e-01</leafValues></_>
        <_>
          <internalNodes>
            0 -1 560 1.3841470703482628e-02</internalNodes>
          <leafValues>
            -7.2037354111671448e-02 3.7411916255950928e-01</leafValues></_>
        <_>
          <internalNodes>
            0 -1 631 5.5044947657734156e-04</internalNodes>
          <leafValues>
            1.2043099850416183e-01 -2.4202817678451538e-01</leafValues></_>
        <_>
          <internalNodes>
            0 -1 434 8.5609890520572662e-03</internalNodes>
          <leafValues>
            -1.1070062965154648e-01 2.6826187968254089e-01</leafValues></_>
        <_>
          <internalNodes>
            0 -1 436 -2.3639835417270660e-01</internalNodes>
          <leafValues>
            -4.9969714879989624e-01 5.3259961307048798e-02</leafValues></_>
        <_>
          <internalNodes>
            0 -1 479 -3.5021742805838585e-03</internalNodes>
          <leafValues>
            2.5599467754364014e-01 -1.3141766190528870e-01</leafValues></_>
        <_>
          <internalNodes>
            0 -1 127 -5.2302885800600052e-02</internalNodes>
          <leafValues>
            -5.4367285966873169e-01 6.2533460557460785e-02</leafValues></_>
        <_>
          <internalNodes>
            0 -1 578 2.6155288796871901e-03</internalNodes>
          <leafValues>
            -8.9470982551574707e-02 3.5147571563720703e-01</leafValues></_>
        <_>
          <internalNodes>
            0 -1 82 -2.7507733553647995e-02</internalNodes>
          <leafValues>
            2.6663199067115784e-01 -8.7024249136447906e-02</leafValues></_>
        <_>
          <internalNodes>
            0 -1 62 5.8152712881565094e-03</internalNodes>
          <leafValues>
            -9.1112375259399414e-02 3.2982659339904785e-01</leafValues></_>
        <_>
          <internalNodes>
            0 -1 732 1.8184591317549348e-04</internalNodes>
          <leafValues>
            1.1568590253591537e-01 -2.3764325678348541e-01</leafValues></_>
        <_>
          <internalNodes>
            0 -1 32 -2.1021246910095215e-02</internalNodes>
          <leafValues>
            3.3402386307716370e-01 -8.1156417727470398e-02</leafValues></_>
        <_>
          <internalNodes>
            0 -1 249 -3.8536325097084045e-02</internalNodes>
          <leafValues>
            3.2071048021316528e-01 -8.3335965871810913e-02</leafValues></_>
        <_>
          <internalNodes>
            0 -1 267 3.2245397567749023e-01</internalNodes>
          <leafValues>
            -8.1135354936122894e-02 3.8901749253273010e-01</leafValues></_>
        <_>
          <internalNodes>
            0 -1 516 1.2589288235176355e-04</internalNodes>
          <leafValues>
            1.1969955265522003e-01 -2.3273959755897522e-01</leafValues></_>
        <_>
          <internalNodes>
            0 -1 573 -6.3534919172525406e-03</internalNodes>
          <leafValues>
            4.0024206042289734e-01 -6.8585753440856934e-02</leafValues></_>
        <_>
          <internalNodes>
            0 -1 589 2.0905997371301055e-04</internalNodes>
          <leafValues>
            9.1690011322498322e-02 -2.8072419762611389e-01</leafValues></_></weakClassifiers></_>
    <!-- stage 5 -->
    <_>
      <maxWeakCount>22</maxWeakCount>
      <stageThreshold>-1.3529196977615356e+00</stageThreshold>
      <weakClassifiers>
        <_>
          <internalNodes>
            0 -1 55 6.8834051489830017e-02</internalNodes>
          <leafValues>
            -2.8694999217987061e-01 5.6199997663497925e-01</leafValues></_>
        <_>
          <internalNodes>
            0 -1 45 -2.1502484381198883e-01</internalNodes>
          <leafValues>
            -5.8561873435974121e-01 2.0630805194377899e-01</leafValues></_>
        <_>
          <internalNodes>
            0 -1 392 -8.6503162980079651e-02</internalNodes>
          <leafValues>
            4.7735983133316040e-01 -2.0589745044708252e-01</leafValues></_>
        <_>
          <internalNodes>
            0 -1 306 9.2005496844649315e-03</internalNodes>
          <leafValues>
            -1.7366904020309448e-01 4.6523088216781616e-01</leafValues></_>
        <_>
          <internalNodes>
            0 -1 139 3.4492462873458862e-02</internalNodes>
          <leafValues>
            -1.6097268462181091e-01 4.5220297574996948e-01</leafValues></_>
        <_>
          <internalNodes>
            0 -1 162 -1.5536319697275758e-03</internalNodes>
          <leafValues>
            -4.0328624844551086e-01 1.7446178197860718e-01</leafValues></_>
        <_>
          <internalNodes>
            0 -1 308 1.2235752306878567e-02</internalNodes>
          <leafValues>
            -1.6019980609416962e-01 4.4054290652275085e-01</leafValues></_>
        <_>
          <internalNodes>
            0 -1 674 -7.9123675823211670e-04</internalNodes>
          <leafValues>
            -3.7425789237022400e-01 1.4740265905857086e-01</leafValues></_>
        <_>
          <internalNodes>
            0 -1 691 1.7431631567887962e-04</internalNodes>
          <leafValues>
            1.7884403467178345e-01 -3.5494583845138550e-01</leafValues></_>
        <_>
          <internalNodes>
            0 -1 214 1.0799740441143513e-02</internalNodes>
          <leafValues>
            -1.2984624505043030e-01 3.5410842299461365e-01</leafValues></_>
        <_>
          <internalNodes>
            0 -1 641 -1.6755427350290120e-04</internalNodes>
          <leafValues>
            -3.3030000329017639e-01 1.3833950459957123e-01</leafValues></_>
        <_>
          <internalNodes>
            0 -1 740 -1.7497480439487845e-04</internalNodes>
          <leafValues>
            -3.1280863285064697e-01 1.4969104528427124e-01</leafValues></_>
        <_>
          <internalNodes>
            0 -1 288 6.0522621497511864e-03</internalNodes>
          <leafValues>
            -1.1993849277496338e-01 4.1012555360794067e-01</leafValues></_>
        <_>
          <internalNodes>
            0 -1 359 -5.5330968461930752e-03</internalNodes>
          <leafValues>
            4.6727371215820313e-01 -1.1734015494585037e-01</leafValues></_>
        <_>
          <internalNodes>
            0 -1 725 -1.4159054262563586e-04</internalNodes>
          <leafValues>
            -3.0596348643302917e-01 1.6951271891593933e-01</leafValues></_>
        <_>
          <internalNodes>
            0 -1 722 -2.5352445663884282e-04</internalNodes>
          <leafValues>
            -3.0153000354766846e-01 1.5812480449676514e-01</leafValues></_>
        <_>
          <internalNodes>
            0 -1 410 -2.6742774993181229e-02</internalNodes>
          <leafValues>
            3.3591085672378540e-01 -1.2930576503276825e-01</leafValues></_>
        <_>
          <internalNodes>
            0 -1 176 7.7920351177453995e-03</internalNodes>
          <leafValues>
            -9.0540088713169098e-02 4.2033416032791138e-01</leafValues></_>
        <_>
          <internalNodes>
            0 -1 148 1.4329899568110704e-04</internalNodes>
          <leafValues>
            1.3611611723899841e-01 -2.9300060868263245e-01</leafValues></_>
        <_>
          <internalNodes>
            0 -1 150 4.3476954102516174e-02</internalNodes>
          <leafValues>
            -1.1747089028358459e-01 4.1103866696357727e-01</leafValues></_>
        <_>
          <internalNodes>
            0 -1 613 5.1733564585447311e-02</internalNodes>
          <leafValues>
            -6.0145705938339233e-02 6.0917949676513672e-01</leafValues></_>
        <_>
          <internalNodes>
            0 -1 282 4.7680605202913284e-03</internalNodes>
          <leafValues>
            -1.2083736062049866e-01 3.3398941159248352e-01</leafValues></_></weakClassifiers></_>
    <!-- stage 6 -->
    <_>
      <maxWeakCount>33</maxWeakCount>
      <stageThreshold>-1.2706502676010132e+00</stageThreshold>
      <weakClassifiers>
        <_>
          <internalNodes>
            0 -1 174 2.9569959640502930e-01</internalNodes>
          <leafValues>
            -2.0599001646041870e-01 6.3914370536804199e-01</leafValues></_>
        <_>
          <internalNodes>
            0 -1 279 -2.0280653238296509e-01</internalNodes>
          <leafValues>
            5.9930819272994995e-01 -1.2894462049007416e-01</leafValues></_>
        <_>
          <internalNodes>
            0 -1 266 4.3963305652141571e-02</internalNodes>
          <leafValues>
            -9.8251000046730042e-02 6.2200069427490234e-01</leafValues></_>
        <_>
          <internalNodes>
            0 -1 435 -2.1611306816339493e-02</internalNodes>
          <leafValues>
            6.4212822914123535e-01 -1.4207956194877625e-01</leafValues></_>
        <_>
          <internalNodes>
            0 -1 378 1.4048793353140354e-02</internalNodes>
          <leafValues>
            -7.6762229204177856e-02 8.1680786609649658e-01</leafValues></_>
        <_>
          <internalNodes>
            0 -1 325 -7.5188651680946350e-02</internalNodes>
          <leafValues>
            -4.0948933362960815e-01 1.7265270650386810e-01</leafValues></_>
        <_>
          <internalNodes>
            0 -1 297 1.2079797685146332e-02</internalNodes>
          <leafValues>
            -8.5079722106456757e-02 6.6093623638153076e-01</leafValues></_>
        <_>
          <internalNodes>
            0 -1 711 -4.2459808173589408e-04</internalNodes>
          <leafValues>
            -4.3441846966743469e-01 1.5161132812500000e-01</leafValues></_>
        <_>
          <internalNodes>
            0 -1 552 -7.5938114896416664e-03</internalNodes>
          <leafValues>
            6.2548393011093140e-01 -7.9711206257343292e-02</leafValues></_>
        <_>
          <internalNodes>
            0 -1 116 -4.8133829841390252e-04</internalNodes>
          <leafValues>
            -2.5582423806190491e-01 1.8258301913738251e-01</leafValues></_>
        <_>
          <internalNodes>
            0 -1 164 -9.3094706535339355e-03</internalNodes>
          <leafValues>
            -3.0035933852195740e-01 1.7255944013595581e-01</leafValues></_>
        <_>
          <internalNodes>
            0 -1 37 4.8237699270248413e-01</internalNodes>
          <leafValues>
            4.8555076122283936e-02 -6.4262580871582031e-01</leafValues></_>
        <_>
          <internalNodes>
            0 -1 237 2.5902375578880310e-02</internalNodes>
          <leafValues>
            -9.7505114972591400e-02 4.2552608251571655e-01</leafValues></_>
        <_>
          <internalNodes>
            0 -1 380 -2.6744391652755439e-04</internalNodes>
          <leafValues>
            -3.0801439285278320e-01 1.4158283174037933e-01</leafValues></_>
        <_>
          <internalNodes>
            0 -1 25 3.1828889041207731e-04</internalNodes>
          <leafValues>
            1.1209750175476074e-01 -3.5933291912078857e-01</leafValues></_>
        <_>
          <internalNodes>
            0 -1 160 -2.0466698333621025e-04</internalNodes>
          <leafValues>
            -2.9003402590751648e-01 1.4216616749763489e-01</leafValues></_>
        <_>
          <internalNodes>
            0 -1 309 5.6166741997003555e-03</internalNodes>
          <leafValues>
            -9.8685719072818756e-02 4.2011040449142456e-01</leafValues></_>
        <_>
          <internalNodes>
            0 -1 112 1.1448268778622150e-03</internalNodes>
          <leafValues>
            1.6206061840057373e-01 -2.4965110421180725e-01</leafValues></_>
        <_>
          <internalNodes>
            0 -1 77 -1.6172491014003754e-02</internalNodes>
          <leafValues>
            -4.5851767063140869e-01 8.4114544093608856e-02</leafValues></_>
        <_>
          <internalNodes>
            0 -1 246 -1.0870436206459999e-02</internalNodes>
          <leafValues>
            5.2862226963043213e-01 -8.5679441690444946e-02</leafValues></_>
        <_>
          <internalNodes>
            0 -1 102 -4.8386581242084503e-02</internalNodes>
          <leafValues>
            1. -3.4219831228256226e-02</leafValues></_>
        <_>
          <internalNodes>
            0 -1 184 4.7811530530452728e-03</internalNodes>
          <leafValues>
            -8.9418038725852966e-02 3.6165922880172729e-01</leafValues></_>
        <_>
          <internalNodes>
            0 -1 666 -8.8902388233691454e-04</internalNodes>
          <leafValues>
            -2.9539838433265686e-01 1.3254943490028381e-01</leafValues></_>
        <_>
          <internalNodes>
            0 -1 178 4.2726770043373108e-03</internalNodes>
          <leafValues>
            -1.4284355938434601e-01 2.8534168004989624e-01</leafValues></_>
        <_>
          <internalNodes>
            0 -1 198 -9.7729433327913284e-03</internalNodes>
          <leafValues>
            6.6439229249954224e-01 -4.7762922942638397e-02</leafValues></_>
        <_>
          <internalNodes>
            0 -1 415 3.8413815200328827e-02</internalNodes>
          <leafValues>
            -1.4300529658794403e-01 2.4657529592514038e-01</leafValues></_>
        <_>
          <internalNodes>
            0 -1 107 -7.5415194034576416e-02</internalNodes>
          <leafValues>
            -4.8109742999076843e-01 7.1431495249271393e-02</leafValues></_>
        <_>
          <internalNodes>
            0 -1 672 -1.7647564527578652e-04</internalNodes>
          <leafValues>
            -2.7513939142227173e-01 1.3331308960914612e-01</leafValues></_>
        <_>
          <internalNodes>
            0 -1 673 1.5771234757266939e-04</internalNodes>
          <leafValues>
            1.5730680525302887e-01 -2.3747685551643372e-01</leafValues></_>
        <_>
          <internalNodes>
            0 -1 272 -1.6259910538792610e-02</internalNodes>
          <leafValues>
            4.3406879901885986e-01 -8.4571793675422668e-02</leafValues></_>
        <_>
          <internalNodes>
            0 -1 467 1.3920514902565628e-05</internalNodes>
          <leafValues>
            -1.7498050630092621e-01 2.1175234019756317e-01</leafValues></_>
        <_>
          <internalNodes>
            0 -1 408 1.8704436952248216e-03</internalNodes>
          <leafValues>
            1.1805342882871628e-01 -3.2943955063819885e-01</leafValues></_>
        <_>
          <internalNodes>
            0 -1 161 -5.6545133702456951e-03</internalNodes>
          <leafValues>
            5.1700091361999512e-01 -7.4548624455928802e-02</leafValues></_></weakClassifiers></_>
    <!-- stage 7 -->
    <_>
      <maxWeakCount>49</maxWeakCount>
      <stageThreshold>-1.1239324808120728e+00</stageThreshold>
      <weakClassifiers>
        <_>
          <internalNodes>
            0 -1 340 3.0823703855276108e-02</internalNodes>
          <leafValues>
            -1.8372881412506104e-01 4.8095908761024475e-01</leafValues></_>
        <_>
          <internalNodes>
            0 -1 121 3.4177055954933167e-01</internalNodes>
          <leafValues>
            -1.1552876979112625e-01 5.1957648992538452e-01</leafValues></_>
        <_>
          <internalNodes>
            0 -1 250 -8.7435878813266754e-02</internalNodes>
          <leafValues>
            3.3398249745368958e-01 -1.3756778836250305e-01</leafValues></_>
        <_>
          <internalNodes>
            0 -1 341 -2.4538882076740265e-02</internalNodes>
          <leafValues>
            4.5160561800003052e-01 -1.2509918212890625e-01</leafValues></_>
        <_>
          <internalNodes>
            0 -1 692 -4.9723451957106590e-04</internalNodes>
          <leafValues>
            -2.1420989930629730e-01 1.9105425477027893e-01</leafValues></_>
        <_>
          <internalNodes>
            0 -1 642 5.6907790713012218e-04</internalNodes>
          <leafValues>
            1.2119282037019730e-01 -2.9871806502342224e-01</leafValues></_>
        <_>
          <internalNodes>
            0 -1 203 -4.3337594717741013e-02</internalNodes>
          <leafValues>
            4.0050613880157471e-01 -8.5654869675636292e-02</leafValues></_>
        <_>
          <internalNodes>
            0 -1 444 3.9286692626774311e-03</internalNodes>
          <leafValues>
            -1.0072575509548187e-01 3.7102609872817993e-01</leafValues></_>
        <_>
          <internalNodes>
            0 -1 379 2.1744877099990845e-02</internalNodes>
          <leafValues>
            -6.6442698240280151e-02 6.6165047883987427e-01</leafValues></_>
        <_>
          <internalNodes>
            0 -1 472 -6.7968582734465599e-03</internalNodes>
          <leafValues>
            5.0803965330123901e-01 -5.4148931056261063e-02</leafValues></_>
        <_>
          <internalNodes>
            0 -1 729 1.6023407806642354e-04</internalNodes>
          <leafValues>
            1.1212947964668274e-01 -2.6709133386611938e-01</leafValues></_>
        <_>
          <internalNodes>
            0 -1 729 -1.9212579354643822e-04</internalNodes>
          <leafValues>
            -2.5251662731170654e-01 1.5464967489242554e-01</leafValues></_>
        <_>
          <internalNodes>
            0 -1 166 8.6815983057022095e-02</internalNodes>
          <leafValues>
            -9.3896418809890747e-02 3.8202014565467834e-01</leafValues></_>
        <_>
          <internalNodes>
            0 -1 491 -1.2199168850202113e-05</internalNodes>
          <leafValues>
            1.3169749081134796e-01 -2.3895888030529022e-01</leafValues></_>
        <_>
          <internalNodes>
            0 -1 278 -5.8135278522968292e-03</internalNodes>
          <leafValues>
            3.7903535366058350e-01 -9.9407844245433807e-02</leafValues></_>
        <_>
          <internalNodes>
            0 -1 56 -3.4196593333035707e-04</internalNodes>
          <leafValues>
            -3.3262825012207031e-01 1.0214740782976151e-01</leafValues></_>
        <_>
          <internalNodes>
            0 -1 222 -7.5032830238342285e-02</internalNodes>
          <leafValues>
            3.9933827519416809e-01 -7.4945576488971710e-02</leafValues></_>
        <_>
          <internalNodes>
            0 -1 253 4.7008341061882675e-04</internalNodes>
          <leafValues>
            1.0799904912710190e-01 -2.9103112220764160e-01</leafValues></_>
        <_>
          <internalNodes>
            0 -1 608 -7.2464195545762777e-04</internalNodes>
          <leafValues>
            -2.7534711360931396e-01 1.0863535106182098e-01</leafValues></_>
        <_>
          <internalNodes>
            0 -1 196 -6.3236621208488941e-03</internalNodes>
          <leafValues>
            3.4581917524337769e-01 -9.7708247601985931e-02</leafValues></_>
        <_>
          <internalNodes>
            0 -1 576 -1.0792894288897514e-02</internalNodes>
          <leafValues>
            3.6098212003707886e-01 -7.1508750319480896e-02</leafValues></_>
        <_>
          <internalNodes>
            0 -1 438 -4.5221045613288879e-02</internalNodes>
          <leafValues>
            3.3407816290855408e-01 -7.9091496765613556e-02</leafValues></_>
        <_>
          <internalNodes>
            0 -1 414 9.8309189081192017e-02</internalNodes>
          <leafValues>
            -8.0987840890884399e-02 4.0760302543640137e-01</leafValues></_>
        <_>
          <internalNodes>
            0 -1 41 -4.2885984294116497e-03</internalNodes>
          <leafValues>
            2.9455620050430298e-01 -9.2759884893894196e-02</leafValues></_>
        <_>
          <internalNodes>
            0 -1 730 6.1142537742853165e-04</internalNodes>
          <leafValues>
            1.4124332368373871e-01 -2.1366381645202637e-01</leafValues></_>
        <_>
          <internalNodes>
            0 -1 649 -8.6140427738428116e-03</internalNodes>
          <leafValues>
            3.4588688611984253e-01 -7.1027196943759918e-02</leafValues></_>
        <_>
          <internalNodes>
            0 -1 624 2.5477218441665173e-03</internalNodes>
          <leafValues>
            -1.3097766041755676e-01 2.1414503455162048e-01</leafValues></_>
        <_>
          <internalNodes>
            0 -1 482 -2.1691326983273029e-03</internalNodes>
          <leafValues>
            2.5747972726821899e-01 -1.1699463427066803e-01</leafValues></_>
        <_>
          <internalNodes>
            0 -1 363 2.9580972623080015e-03</internalNodes>
          <leafValues>
            -7.3429532349109650e-02 3.4901624917984009e-01</leafValues></_>
        <_>
          <internalNodes>
            0 -1 541 -1.3966863974928856e-02</internalNodes>
          <leafValues>
            7.1603518724441528e-01 -3.1584948301315308e-02</leafValues></_>
        <_>
          <internalNodes>
            0 -1 738 -6.9920963142067194e-04</internalNodes>
          <leafValues>
            -2.7101528644561768e-01 9.7806699573993683e-02</leafValues></_>
        <_>
          <internalNodes>
            0 -1 364 -3.5069966688752174e-03</internalNodes>
          <leafValues>
            3.0331405997276306e-01 -9.1252870857715607e-02</leafValues></_>
        <_>
          <internalNodes>
            0 -1 111 1.9729891791939735e-02</internalNodes>
          <leafValues>
            8.2683481276035309e-02 -3.3153468370437622e-01</leafValues></_>
        <_>
          <internalNodes>
            0 -1 486 -1.0686279892979655e-05</internalNodes>
          <leafValues>
            1.7361165583133698e-01 -1.5037907660007477e-01</leafValues></_>
        <_>
          <internalNodes>
            0 -1 26 -5.4019258823245764e-04</internalNodes>
          <leafValues>
            -2.3707284033298492e-01 1.1688268184661865e-01</leafValues></_>
        <_>
          <internalNodes>
            0 -1 9 8.7143376469612122e-02</internalNodes>
          <leafValues>
            1.7697943374514580e-02 -8.9987540245056152e-01</leafValues></_>
        <_>
          <internalNodes>
            0 -1 175 -5.5489297956228256e-03</internalNodes>
          <leafValues>
            2.9912364482879639e-01 -9.5494270324707031e-02</leafValues></_>
        <_>
          <internalNodes>
            0 -1 640 7.4810599908232689e-03</internalNodes>
          <leafValues>
            4.5804329216480255e-02 -5.6321674585342407e-01</leafValues></_>
        <_>
          <internalNodes>
            0 -1 358 -2.8915863949805498e-03</internalNodes>
          <leafValues>
            3.6252337694168091e-01 -7.6681628823280334e-02</leafValues></_>
        <_>
          <internalNodes>
            0 -1 345 -9.2976304586045444e-05</internalNodes>
          <leafValues>
            -2.0228584110736847e-01 1.3470433652400970e-01</leafValues></_>
        <_>
          <internalNodes>
            0 -1 412 1.0155101335840300e-05</internalNodes>
          <leafValues>
            -1.4975169301033020e-01 1.7565613985061646e-01</leafValues></_>
        <_>
          <internalNodes>
            0 -1 219 -1.0257557034492493e-01</internalNodes>
          <leafValues>
            -7.2149175405502319e-01 3.9209760725498199e-02</leafValues></_>
        <_>
          <internalNodes>
            0 -1 265 -4.5665949583053589e-03</internalNodes>
          <leafValues>
            5.1280027627944946e-01 -5.6660234928131104e-02</leafValues></_>
        <_>
          <internalNodes>
            0 -1 98 -6.0905800200998783e-03</internalNodes>
          <leafValues>
            3.1056499481201172e-01 -8.0669239163398743e-02</leafValues></_>
        <_>
          <internalNodes>
            0 -1 145 1.3395756483078003e-02</internalNodes>
          <leafValues>
            -7.8697361052036285e-02 3.5646948218345642e-01</leafValues></_>
        <_>
          <internalNodes>
            0 -1 151 -2.0974519429728389e-04</internalNodes>
          <leafValues>
            -2.2481615841388702e-01 1.1290279030799866e-01</leafValues></_>
        <_>
          <internalNodes>
            0 -1 464 -7.9008413013070822e-04</internalNodes>
          <leafValues>
            -3.2242137193679810e-01 7.4085779488086700e-02</leafValues></_>
        <_>
          <internalNodes>
            0 -1 242 -4.0447637438774109e-03</internalNodes>
          <leafValues>
            6.5047848224639893e-01 -4.2344015091657639e-02</leafValues></_>
        <_>
          <internalNodes>
            0 -1 505 7.9961121082305908e-03</internalNodes>
          <leafValues>
            -1.0285067558288574e-01 2.6452714204788208e-01</leafValues></_></weakClassifiers></_>
    <!-- stage 8 -->
    <_>
      <maxWeakCount>52</maxWeakCount>
      <stageThreshold>-1.1417214870452881e+00</stageThreshold>
      <weakClassifiers>
        <_>
          <internalNodes>
            0 -1 141 -1.4737595338374376e-03</internalNodes>
          <leafValues>
            1.3354176282882690e-01 -3.5211268067359924e-01</leafValues></_>
        <_>
          <internalNodes>
            0 -1 52 -8.5943371057510376e-02</internalNodes>
          <leafValues>
            3.7067642807960510e-01 -1.2114128470420837e-01</leafValues></_>
        <_>
          <internalNodes>
            0 -1 24 3.2774084806442261e-01</internalNodes>
          <leafValues>
            -8.6305640637874603e-02 5.1705479621887207e-01</leafValues></_>
        <_>
          <internalNodes>
            0 -1 719 1.4220675220713019e-03</internalNodes>
          <leafValues>
            8.8716752827167511e-02 -4.4767585396766663e-01</leafValues></_>
        <_>
          <internalNodes>
            0 -1 181 -2.0580011606216431e-01</internalNodes>
          <leafValues>
            4.5297113060951233e-01 -7.0937179028987885e-02</leafValues></_>
        <_>
          <internalNodes>
            0 -1 367 2.6845881715416908e-02</internalNodes>
          <leafValues>
            -1.1882217228412628e-01 4.2298346757888794e-01</leafValues></_>
        <_>
          <internalNodes>
            0 -1 236 3.3295929431915283e-02</internalNodes>
          <leafValues>
            -7.4037484824657440e-02 7.6243668794631958e-01</leafValues></_>
        <_>
          <internalNodes>
            0 -1 230 -1.0887412726879120e-01</internalNodes>
          <leafValues>
            2.8918516635894775e-01 -1.0106077790260315e-01</leafValues></_>
        <_>
          <internalNodes>
            0 -1 238 3.7466369569301605e-02</internalNodes>
          <leafValues>
            -4.7041554003953934e-02 4.9585151672363281e-01</leafValues></_>
        <_>
          <internalNodes>
            0 -1 120 2.2858479619026184e-01</internalNodes>
          <leafValues>
            -7.2342380881309509e-02 5.3006327152252197e-01</leafValues></_>
        <_>
          <internalNodes>
            0 -1 338 -1.1118105612695217e-03</internalNodes>
          <leafValues>
            -4.4965010881423950e-01 6.8528935313224792e-02</leafValues></_>
        <_>
          <internalNodes>
            0 -1 216 -2.2688791155815125e-02</internalNodes>
          <leafValues>
            6.1102330684661865e-01 -5.8850482106208801e-02</leafValues></_>
        <_>
          <internalNodes>
            0 -1 243 2.2972419174038805e-05</internalNodes>
          <leafValues>
            -1.3524083793163300e-01 1.9460037350654602e-01</leafValues></_>
        <_>
          <internalNodes>
            0 -1 669 -3.4834421967389062e-05</internalNodes>
          <leafValues>
            1.6737096011638641e-01 -1.4499658346176147e-01</leafValues></_>
        <_>
          <internalNodes>
            0 -1 473 1.7030970193445683e-03</internalNodes>
          <leafValues>
            -1.2372715026140213e-01 1.9308267533779144e-01</leafValues></_>
        <_>
          <internalNodes>
            0 -1 506 1.7549329996109009e-01</internalNodes>
          <leafValues>
            -5.8228120207786560e-02 5.2462625503540039e-01</leafValues></_>
        <_>
          <internalNodes>
            0 -1 619 -2.3904669433250092e-05</internalNodes>
          <leafValues>
            1.9339393079280853e-01 -1.5225136280059814e-01</leafValues></_>
        <_>
          <internalNodes>
            0 -1 633 2.1933266543783247e-04</internalNodes>
          <leafValues>
            1.0257695615291595e-01 -2.6755201816558838e-01</leafValues></_>
        <_>
          <internalNodes>
            0 -1 450 -4.4225957244634628e-03</internalNodes>
          <leafValues>
            2.5714328885078430e-01 -1.0715244710445404e-01</leafValues></_>
        <_>
          <internalNodes>
            0 -1 191 -2.3257780820131302e-02</internalNodes>
          <leafValues>
            2.2273649275302887e-01 -1.1375284940004349e-01</leafValues></_>
        <_>
          <internalNodes>
            0 -1 143 3.4425405319780111e-03</internalNodes>
          <leafValues>
            7.1540549397468567e-02 -3.4085282683372498e-01</leafValues></_>
        <_>
          <internalNodes>
            0 -1 520 -4.9051709473133087e-02</internalNodes>
          <leafValues>
            2.9385420680046082e-01 -8.1516727805137634e-02</leafValues></_>
        <_>
          <internalNodes>
            0 -1 712 2.8088921681046486e-04</internalNodes>
          <leafValues>
            8.8330157101154327e-02 -2.7758130431175232e-01</leafValues></_>
        <_>
          <internalNodes>
            0 -1 596 2.1523263305425644e-02</internalNodes>
          <leafValues>
            -9.2948123812675476e-02 2.5848495960235596e-01</leafValues></_>
        <_>
          <internalNodes>
            0 -1 599 -1.4378610998392105e-02</internalNodes>
          <leafValues>
            2.8828734159469604e-01 -9.8652824759483337e-02</leafValues></_>
        <_>
          <internalNodes>
            0 -1 245 -3.9123278111219406e-03</internalNodes>
          <leafValues>
            2.7689474821090698e-01 -7.5174428522586823e-02</leafValues></_>
        <_>
          <internalNodes>
            0 -1 53 3.0398069065995514e-04</internalNodes>
          <leafValues>
            -1.5638239681720734e-01 1.5845677256584167e-01</leafValues></_>
        <_>
          <internalNodes>
            0 -1 497 -7.9436535015702248e-03</internalNodes>
          <leafValues>
            -4.5161736011505127e-01 5.5128410458564758e-02</leafValues></_>
        <_>
          <internalNodes>
            0 -1 691 5.7494081556797028e-04</internalNodes>
          <leafValues>
            6.0827869921922684e-02 -3.4486111998558044e-01</leafValues></_>
        <_>
          <internalNodes>
            0 -1 407 -8.0888513475656509e-03</internalNodes>
          <leafValues>
            2.1133227646350861e-01 -1.1719712615013123e-01</leafValues></_>
        <_>
          <internalNodes>
            0 -1 126 2.9631583020091057e-03</internalNodes>
          <leafValues>
            -1.0960067063570023e-01 2.1316805481910706e-01</leafValues></_>
        <_>
          <internalNodes>
            0 -1 377 -2.3443264581146650e-05</internalNodes>
          <leafValues>
            1.4996212720870972e-01 -1.4475190639495850e-01</leafValues></_>
        <_>
          <internalNodes>
            0 -1 463 7.9272512812167406e-04</internalNodes>
          <leafValues>
            6.2395341694355011e-02 -3.4867089986801147e-01</leafValues></_>
        <_>
          <internalNodes>
            0 -1 347 1.5649817883968353e-02</internalNodes>
          <leafValues>
            -1.1445756256580353e-01 2.0983730256557465e-01</leafValues></_>
        <_>
          <internalNodes>
            0 -1 276 -9.3698494136333466e-02</internalNodes>
          <leafValues>
            5.3960072994232178e-01 -5.3237549960613251e-02</leafValues></_>
        <_>
          <internalNodes>
            0 -1 463 -6.9634034298360348e-04</internalNodes>
          <leafValues>
            -3.7095922231674194e-01 7.0019267499446869e-02</leafValues></_>
        <_>
          <internalNodes>
            0 -1 187 -4.6231810003519058e-02</internalNodes>
          <leafValues>
            3.7667244672775269e-01 -6.1128064990043640e-02</leafValues></_>
        <_>
          <internalNodes>
            0 -1 530 -9.4222873449325562e-03</internalNodes>
          <leafValues>
            -6.2619763612747192e-01 4.0096543729305267e-02</leafValues></_>
        <_>
          <internalNodes>
            0 -1 528 -2.0803679944947362e-05</internalNodes>
          <leafValues>
            1.4608554542064667e-01 -1.4493437111377716e-01</leafValues></_>
        <_>
          <internalNodes>
            0 -1 700 7.7161993831396103e-03</internalNodes>
          <leafValues>
            -3.5983342677354813e-02 5.2293401956558228e-01</leafValues></_>
        <_>
          <internalNodes>
            0 -1 546 2.2980369976721704e-05</internalNodes>
          <leafValues>
            -1.2964074313640594e-01 1.5848961472511292e-01</leafValues></_>
        <_>
          <internalNodes>
            0 -1 417 -1.5468103811144829e-03</internalNodes>
          <leafValues>
            2.0707470178604126e-01 -9.7522035241127014e-02</leafValues></_>
        <_>
          <internalNodes>
            0 -1 427 -9.8357230424880981e-02</internalNodes>
          <leafValues>
            2.9678380489349365e-01 -6.5853327512741089e-02</leafValues></_>
        <_>
          <internalNodes>
            0 -1 531 4.4427992543205619e-04</internalNodes>
          <leafValues>
            6.5741851925849915e-02 -3.2101777195930481e-01</leafValues></_>
        <_>
          <internalNodes>
            0 -1 320 -2.1719601936638355e-03</internalNodes>
          <leafValues>
            2.0982764661312103e-01 -1.0363165289163589e-01</leafValues></_>
        <_>
          <internalNodes>
            0 -1 292 2.7409705799072981e-03</internalNodes>
          <leafValues>
            -9.7335979342460632e-02 2.0353978872299194e-01</leafValues></_>
        <_>
          <internalNodes>
            0 -1 30 8.6768381297588348e-03</internalNodes>
          <leafValues>
            -7.3892198503017426e-02 2.6797285676002502e-01</leafValues></_>
        <_>
          <internalNodes>
            0 -1 0 6.8991875741630793e-04</internalNodes>
          <leafValues>
            5.2233338356018066e-02 -3.5230836272239685e-01</leafValues></_>
        <_>
          <internalNodes>
            0 -1 465 1.0155101335840300e-05</internalNodes>
          <leafValues>
            -1.1699986457824707e-01 1.5733489394187927e-01</leafValues></_>
        <_>
          <internalNodes>
            0 -1 49 1.6414795070886612e-02</internalNodes>
          <leafValues>
            -6.2120832502841949e-02 3.1525084376335144e-01</leafValues></_>
        <_>
          <internalNodes>
            0 -1 115 -1.5139102935791016e-02</internalNodes>
          <leafValues>
            1.9785209000110626e-01 -1.1489693075418472e-01</leafValues></_>
        <_>
          <internalNodes>
            0 -1 645 2.4153872800525278e-05</internalNodes>
          <leafValues>
            -1.3507983088493347e-01 1.6050231456756592e-01</leafValues></_></weakClassifiers></_>
    <!-- stage 9 -->
    <_>
      <maxWeakCount>69</maxWeakCount>
      <stageThreshold>-1.0537915229797363e+00</stageThreshold>
      <weakClassifiers>
        <_>
          <internalNodes>
            0 -1 7 -8.3534400910139084e-03</internalNodes>
          <leafValues>
            -3.9805826544761658e-01 6.1493411660194397e-02</leafValues></_>
        <_>
          <internalNodes>
            0 -1 185 -1.1990858614444733e-01</internalNodes>
          <leafValues>
            -4.6165794134140015e-01 5.7760067284107208e-02</leafValues></_>
        <_>
          <internalNodes>
            0 -1 651 -6.2949527055025101e-03</internalNodes>
          <leafValues>
            1.8379236757755280e-01 -1.6639046370983124e-01</leafValues></_>
        <_>
          <internalNodes>
            0 -1 20 3.8947426946833730e-04</internalNodes>
          <leafValues>
            8.8589742779731750e-02 -3.4333550930023193e-01</leafValues></_>
        <_>
          <internalNodes>
            0 -1 19 2.4156004190444946e-02</internalNodes>
          <leafValues>
            -1.2145198881626129e-01 2.5559324026107788e-01</leafValues></_>
        <_>
          <internalNodes>
            0 -1 334 5.6969583034515381e-02</internalNodes>
          <leafValues>
            -7.3543891310691833e-02 5.1609879732131958e-01</leafValues></_>
        <_>
          <internalNodes>
            0 -1 661 2.6011629961431026e-04</internalNodes>
          <leafValues>
            1.1641525477170944e-01 -2.6028972864151001e-01</leafValues></_>
        <_>
          <internalNodes>
            0 -1 87 1.8128093332052231e-02</internalNodes>
          <leafValues>
            -7.0077449083328247e-02 4.1601541638374329e-01</leafValues></_>
        <_>
          <internalNodes>
            0 -1 462 6.1733741313219070e-04</internalNodes>
          <leafValues>
            8.2803376019001007e-02 -3.0817449092864990e-01</leafValues></_>
        <_>
          <internalNodes>
            0 -1 83 -2.9213700443506241e-02</internalNodes>
          <leafValues>
            2.2848914563655853e-01 -1.1477599292993546e-01</leafValues></_>
        <_>
          <internalNodes>
            0 -1 312 3.0812580138444901e-02</internalNodes>
          <leafValues>
            -9.5371067523956299e-02 2.6892542839050293e-01</leafValues></_>
        <_>
          <internalNodes>
            0 -1 269 -4.8856481909751892e-02</internalNodes>
          <leafValues>
            3.2167217135429382e-01 -7.0773214101791382e-02</leafValues></_>
        <_>
          <internalNodes>
            0 -1 733 1.1845218250527978e-04</internalNodes>
          <leafValues>
            1.0939957201480865e-01 -2.0286414027214050e-01</leafValues></_>
        <_>
          <internalNodes>
            0 -1 717 -4.9835341051220894e-03</internalNodes>
          <leafValues>
            2.5852712988853455e-01 -9.2768907546997070e-02</leafValues></_>
        <_>
          <internalNodes>
            0 -1 733 -1.7266982467845082e-04</internalNodes>
          <leafValues>
            -2.4736608564853668e-01 1.0482804477214813e-01</leafValues></_>
        <_>
          <internalNodes>
            0 -1 188 -1.5893155336380005e-01</internalNodes>
          <leafValues>
            5.1726478338241577e-01 -4.5301761478185654e-02</leafValues></_>
        <_>
          <internalNodes>
            0 -1 247 -1.2763955630362034e-02</internalNodes>
          <leafValues>
            2.2657831013202667e-01 -1.3262172043323517e-01</leafValues></_>
        <_>
          <internalNodes>
            0 -1 648 -1.8484115600585938e-02</internalNodes>
          <leafValues>
            3.2004457712173462e-01 -7.6593913137912750e-02</leafValues></_>
        <_>
          <internalNodes>
            0 -1 655 -2.9319757595658302e-04</internalNodes>
          <leafValues>
            -2.5612276792526245e-01 8.9271053671836853e-02</leafValues></_>
        <_>
          <internalNodes>
            0 -1 135 8.0269938334822655e-03</internalNodes>
          <leafValues>
            -8.7533324956893921e-02 2.5248229503631592e-01</leafValues></_>
        <_>
          <internalNodes>
            0 -1 263 -1.7828769050538540e-03</internalNodes>
          <leafValues>
            3.6462712287902832e-01 -5.7574741542339325e-02</leafValues></_>
        <_>
          <internalNodes>
            0 -1 100 1.0799054056406021e-02</internalNodes>
          <leafValues>
            3.3465538173913956e-02 -5.2248871326446533e-01</leafValues></_>
        <_>
          <internalNodes>
            0 -1 504 -2.1708110580220819e-05</internalNodes>
          <leafValues>
            1.4314538240432739e-01 -1.3725087046623230e-01</leafValues></_>
        <_>
          <internalNodes>
            0 -1 512 3.9265165105462074e-03</internalNodes>
          <leafValues>
            -8.0807477235794067e-02 2.3615087568759918e-01</leafValues></_>
        <_>
          <internalNodes>
            0 -1 437 7.9220347106456757e-04</internalNodes>
          <leafValues>
            7.3702894151210785e-02 -2.7153274416923523e-01</leafValues></_>
        <_>
          <internalNodes>
            0 -1 514 -2.5575389154255390e-03</internalNodes>
          <leafValues>
            1.8796987831592560e-01 -1.0181261599063873e-01</leafValues></_>
        <_>
          <internalNodes>
            0 -1 206 -2.0383596420288086e-02</internalNodes>
          <leafValues>
            2.7642861008644104e-01 -6.7946612834930420e-02</leafValues></_>
        <_>
          <internalNodes>
            0 -1 373 -2.4345774203538895e-02</internalNodes>
          <leafValues>
            2.0338483154773712e-01 -1.0180015116930008e-01</leafValues></_>
        <_>
          <internalNodes>
            0 -1 146 -4.5173302292823792e-02</internalNodes>
          <leafValues>
            -5.1066243648529053e-01 4.8849400132894516e-02</leafValues></_>
        <_>
          <internalNodes>
            0 -1 179 -1.2053281068801880e-02</internalNodes>
          <leafValues>
            5.9040045738220215e-01 -3.9077516645193100e-02</leafValues></_>
        <_>
          <internalNodes>
            0 -1 399 -2.0463126711547375e-03</internalNodes>
          <leafValues>
            -2.2258192300796509e-01 8.7543897330760956e-02</leafValues></_>
        <_>
          <internalNodes>
            0 -1 307 1.4068091288208961e-02</internalNodes>
          <leafValues>
            -9.0113535523414612e-02 2.1252627670764923e-01</leafValues></_>
        <_>
          <internalNodes>
            0 -1 343 -1.4686214737594128e-02</internalNodes>
          <leafValues>
            2.1896456182003021e-01 -9.8103731870651245e-02</leafValues></_>
        <_>
          <internalNodes>
            0 -1 117 -4.4002203503623605e-04</internalNodes>
          <leafValues>
            -2.9447892308235168e-01 7.1754582226276398e-02</leafValues></_>
        <_>
          <internalNodes>
            0 -1 558 2.4174056015908718e-03</internalNodes>
          <leafValues>
            -3.7119012326002121e-02 5.6918317079544067e-01</leafValues></_>
        <_>
          <internalNodes>
            0 -1 653 9.1754569439217448e-04</internalNodes>
          <leafValues>
            1.0139816254377365e-01 -1.8941411375999451e-01</leafValues></_>
        <_>
          <internalNodes>
            0 -1 362 -1.7738443566486239e-03</internalNodes>
          <leafValues>
            2.1342763304710388e-01 -8.7688989937305450e-02</leafValues></_>
        <_>
          <internalNodes>
            0 -1 565 6.1150162946432829e-04</internalNodes>
          <leafValues>
            -1.1015801876783371e-01 1.7276947200298309e-01</leafValues></_>
        <_>
          <internalNodes>
            0 -1 169 4.7754806280136108e-01</internalNodes>
          <leafValues>
            -3.4525759518146515e-02 5.1570236682891846e-01</leafValues></_>
        <_>
          <internalNodes>
            0 -1 220 -1.4136312901973724e-01</internalNodes>
          <leafValues>
            -7.2088384628295898e-01 2.9461642727255821e-02</leafValues></_>
        <_>
          <internalNodes>
            0 -1 424 -5.0159469246864319e-03</internalNodes>
          <leafValues>
            1.8086077272891998e-01 -9.7991973161697388e-02</leafValues></_>
        <_>
          <internalNodes>
            0 -1 629 -3.1172342598438263e-02</internalNodes>
          <leafValues>
            2.4709147214889526e-01 -7.4841856956481934e-02</leafValues></_>
        <_>
          <internalNodes>
            0 -1 218 -4.1854023933410645e-01</internalNodes>
          <leafValues>
            5.1777100563049316e-01 -3.7562854588031769e-02</leafValues></_>
        <_>
          <internalNodes>
            0 -1 227 -7.7528767287731171e-03</internalNodes>
          <leafValues>
            3.3663910627365112e-01 -5.7502619922161102e-02</leafValues></_>
        <_>
          <internalNodes>
            0 -1 592 2.1716783521696925e-04</internalNodes>
          <leafValues>
            8.5419006645679474e-02 -2.4496337771415710e-01</leafValues></_>
        <_>
          <internalNodes>
            0 -1 111 -7.4708620086312294e-03</internalNodes>
          <leafValues>
            -2.0939470827579498e-01 9.5678828656673431e-02</leafValues></_>
        <_>
          <internalNodes>
            0 -1 498 9.6576521173119545e-04</internalNodes>
          <leafValues>
            9.9538996815681458e-02 -2.1172115206718445e-01</leafValues></_>
        <_>
          <internalNodes>
            0 -1 524 -2.6941794203594327e-05</internalNodes>
          <leafValues>
            1.2962055206298828e-01 -1.4939737319946289e-01</leafValues></_>
        <_>
          <internalNodes>
            0 -1 134 -1.1083004996180534e-02</internalNodes>
          <leafValues>
            3.4915974736213684e-01 -5.4235324263572693e-02</leafValues></_>
        <_>
          <internalNodes>
            0 -1 50 -1.6621779650449753e-04</internalNodes>
          <leafValues>
            -2.3039335012435913e-01 7.8415520489215851e-02</leafValues></_>
        <_>
          <internalNodes>
            0 -1 73 -4.2625302448868752e-03</internalNodes>
          <leafValues>
            3.2985198497772217e-01 -5.5613964796066284e-02</leafValues></_>
        <_>
          <internalNodes>
            0 -1 170 2.1920111030340195e-02</internalNodes>
          <leafValues>
            -5.5431149899959564e-02 3.2825332880020142e-01</leafValues></_>
        <_>
          <internalNodes>
            0 -1 338 1.2381876586005092e-03</internalNodes>
          <leafValues>
            4.5429147779941559e-02 -3.9893159270286560e-01</leafValues></_>
        <_>
          <internalNodes>
            0 -1 452 -7.9583749175071716e-03</internalNodes>
          <leafValues>
            6.7564022541046143e-01 -2.8538590297102928e-02</leafValues></_>
        <_>
          <internalNodes>
            0 -1 92 1.3616854324936867e-02</internalNodes>
          <leafValues>
            -6.0446329414844513e-02 2.7759692072868347e-01</leafValues></_>
        <_>
          <internalNodes>
            0 -1 106 -2.0172316581010818e-02</internalNodes>
          <leafValues>
            -9.8414576053619385e-01 2.0458204671740532e-02</leafValues></_>
        <_>
          <internalNodes>
            0 -1 333 -1.7573850229382515e-02</internalNodes>
          <leafValues>
            5.5748206377029419e-01 -4.0070008486509323e-02</leafValues></_>
        <_>
          <internalNodes>
            0 -1 587 4.6410528011620045e-04</internalNodes>
          <leafValues>
            9.2666819691658020e-02 -2.1682408452033997e-01</leafValues></_>
        <_>
          <internalNodes>
            0 -1 72 9.0868651866912842e-02</internalNodes>
          <leafValues>
            3.9519127458333969e-02 -4.5688146352767944e-01</leafValues></_>
        <_>
          <internalNodes>
            0 -1 130 4.3204918503761292e-02</internalNodes>
          <leafValues>
            4.1008740663528442e-02 -4.0520474314689636e-01</leafValues></_>
        <_>
          <internalNodes>
            0 -1 88 8.8086687028408051e-03</internalNodes>
          <leafValues>
            2.3275172337889671e-02 -6.9918978214263916e-01</leafValues></_>
        <_>
          <internalNodes>
            0 -1 385 -1.7370110377669334e-02</internalNodes>
          <leafValues>
            3.0478528141975403e-01 -6.2214158475399017e-02</leafValues></_>
        <_>
          <internalNodes>
            0 -1 604 -1.9908880814909935e-02</internalNodes>
          <leafValues>
            2.7188345789909363e-01 -6.3416406512260437e-02</leafValues></_>
        <_>
          <internalNodes>
            0 -1 390 -2.4796459823846817e-02</internalNodes>
          <leafValues>
            -4.5746976137161255e-01 3.5507127642631531e-02</leafValues></_>
        <_>
          <internalNodes>
            0 -1 43 8.3579290658235550e-03</internalNodes>
          <leafValues>
            -7.5226984918117523e-02 2.1823681890964508e-01</leafValues></_>
        <_>
          <internalNodes>
            0 -1 46 -7.3865696322172880e-05</internalNodes>
          <leafValues>
            -1.7424771189689636e-01 9.9582962691783905e-02</leafValues></_>
        <_>
          <internalNodes>
            0 -1 388 2.2780184735893272e-05</internalNodes>
          <leafValues>
            -1.2752138078212738e-01 1.2881471216678619e-01</leafValues></_>
        <_>
          <internalNodes>
            0 -1 335 2.3731012333882973e-05</internalNodes>
          <leafValues>
            -1.1532719433307648e-01 1.4293126761913300e-01</leafValues></_>
        <_>
          <internalNodes>
            0 -1 16 4.1536033153533936e-02</internalNodes>
          <leafValues>
            4.7703739255666733e-02 -3.4957426786422729e-01</leafValues></_></weakClassifiers></_>
    <!-- stage 10 -->
    <_>
      <maxWeakCount>72</maxWeakCount>
      <stageThreshold>-1.0408967733383179e+00</stageThreshold>
      <weakClassifiers>
        <_>
          <internalNodes>
            0 -1 59 7.1670874953269958e-02</internalNodes>
          <leafValues>
            -1.6261553764343262e-01 3.7127372622489929e-01</leafValues></_>
        <_>
          <internalNodes>
            0 -1 409 8.1933254841715097e-04</internalNodes>
          <leafValues>
            7.7076748013496399e-02 -4.7768485546112061e-01</leafValues></_>
        <_>
          <internalNodes>
            0 -1 108 4.5445226132869720e-02</internalNodes>
          <leafValues>
            -4.3039184063673019e-02 8.3738094568252563e-01</leafValues></_>
        <_>
          <internalNodes>
            0 -1 562 1.2390534393489361e-03</internalNodes>
          <leafValues>
            5.1742170006036758e-02 -5.6010556221008301e-01</leafValues></_>
        <_>
          <internalNodes>
            0 -1 562 -8.2480680430307984e-04</internalNodes>
          <leafValues>
            -4.2119872570037842e-01 1.0714291781187057e-01</leafValues></_>
        <_>
          <internalNodes>
            0 -1 23 8.3297505974769592e-02</internalNodes>
          <leafValues>
            -1.0062015801668167e-01 3.6238870024681091e-01</leafValues></_>
        <_>
          <internalNodes>
            0 -1 602 5.0940185785293579e-02</internalNodes>
          <leafValues>
            -1.3312061131000519e-01 2.3257714509963989e-01</leafValues></_>
        <_>
          <internalNodes>
            0 -1 97 1.1291825771331787e-01</internalNodes>
          <leafValues>
            -2.8127955272793770e-02 4.7087985277175903e-01</leafValues></_>
        <_>
          <internalNodes>
            0 -1 295 -4.8473671078681946e-02</internalNodes>
          <leafValues>
            6.2492990493774414e-01 -5.6992694735527039e-02</leafValues></_>
        <_>
          <internalNodes>
            0 -1 533 5.0300997681915760e-03</internalNodes>
          <leafValues>
            -7.8475281596183777e-02 3.3544242382049561e-01</leafValues></_>
        <_>
          <internalNodes>
            0 -1 567 1.0985776782035828e-02</internalNodes>
          <leafValues>
            -1.0958790779113770e-01 2.1444870531558990e-01</leafValues></_>
        <_>
          <internalNodes>
            0 -1 287 -4.9060568213462830e-02</internalNodes>
          <leafValues>
            3.2630351185798645e-01 -5.5251106619834900e-02</leafValues></_>
        <_>
          <internalNodes>
            0 -1 455 -1.5957690266077407e-05</internalNodes>
          <leafValues>
            1.0464698076248169e-01 -2.1089065074920654e-01</leafValues></_>
        <_>
          <internalNodes>
            0 -1 241 -8.8338807225227356e-02</internalNodes>
          <leafValues>
            3.5519558191299438e-01 -6.8637840449810028e-02</leafValues></_>
        <_>
          <internalNodes>
            0 -1 319 -6.5704183652997017e-03</internalNodes>
          <leafValues>
            2.8397795557975769e-01 -7.2945334017276764e-02</leafValues></_>
        <_>
          <internalNodes>
            0 -1 21 -5.9673041105270386e-03</internalNodes>
          <leafValues>
            -6.0496550798416138e-01 2.6906181126832962e-02</leafValues></_>
        <_>
          <internalNodes>
            0 -1 232 6.0779161751270294e-02</internalNodes>
          <leafValues>
            -5.5241350084543228e-02 3.8255089521408081e-01</leafValues></_>
        <_>
          <internalNodes>
            0 -1 89 -1.7115239053964615e-02</internalNodes>
          <leafValues>
            -3.3916202187538147e-01 5.6647207587957382e-02</leafValues></_>
        <_>
          <internalNodes>
            0 -1 409 -1.8368588644079864e-04</internalNodes>
          <leafValues>
            -2.2327309846878052e-01 8.2221910357475281e-02</leafValues></_>
        <_>
          <internalNodes>
            0 -1 42 5.5654393509030342e-03</internalNodes>
          <leafValues>
            -6.9229677319526672e-02 2.8798541426658630e-01</leafValues></_>
        <_>
          <internalNodes>
            0 -1 478 1.9479189068078995e-02</internalNodes>
          <leafValues>
            -6.4504593610763550e-02 2.9023912549018860e-01</leafValues></_>
        <_>
          <internalNodes>
            0 -1 248 1.0412491858005524e-02</internalNodes>
          <leafValues>
            -5.5794104933738708e-02 2.9081079363822937e-01</leafValues></_>
        <_>
          <internalNodes>
            0 -1 698 -1.4704835484735668e-04</internalNodes>
          <leafValues>
            -1.9545285403728485e-01 9.6454992890357971e-02</leafValues></_>
        <_>
          <internalNodes>
            0 -1 159 9.2314701760187745e-04</internalNodes>
          <leafValues>
            5.1377952098846436e-02 -3.8277330994606018e-01</leafValues></_>
        <_>
          <internalNodes>
            0 -1 670 3.0653942376375198e-03</internalNodes>
          <leafValues>
            -6.6762261092662811e-02 2.7154579758644104e-01</leafValues></_>
        <_>
          <internalNodes>
            0 -1 618 2.0540416240692139e-02</internalNodes>
          <leafValues>
            -4.1337549686431885e-02 4.2156258225440979e-01</leafValues></_>
        <_>
          <internalNodes>
            0 -1 654 6.4930523512884974e-04</internalNodes>
          <leafValues>
            5.3685583174228668e-02 -3.4986975789070129e-01</leafValues></_>
        <_>
          <internalNodes>
            0 -1 211 2.5526653975248337e-02</internalNodes>
          <leafValues>
            -6.9474831223487854e-02 2.4741491675376892e-01</leafValues></_>
        <_>
          <internalNodes>
            0 -1 12 -1.8167071975767612e-03</internalNodes>
          <leafValues>
            1.9516679644584656e-01 -8.7694033980369568e-02</leafValues></_>
        <_>
          <internalNodes>
            0 -1 431 -9.1956797987222672e-03</internalNodes>
          <leafValues>
            -4.8494070768356323e-01 3.8747563958168030e-02</leafValues></_>
        <_>
          <internalNodes>
            0 -1 678 2.4114125408232212e-03</internalNodes>
          <leafValues>
            1.7894608899950981e-02 -8.3901906013488770e-01</leafValues></_>
        <_>
          <internalNodes>
            0 -1 572 -1.0303817689418793e-02</internalNodes>
          <leafValues>
            2.0484183728694916e-01 -8.2344651222229004e-02</leafValues></_>
        <_>
          <internalNodes>
            0 -1 671 -1.1050167959183455e-03</internalNodes>
          <leafValues>
            -4.5614567399024963e-01 3.8916293531656265e-02</leafValues></_>
        <_>
          <internalNodes>
            0 -1 557 -1.2104708701372147e-02</internalNodes>
          <leafValues>
            1.8449358642101288e-01 -8.9748769998550415e-02</leafValues></_>
        <_>
          <internalNodes>
            0 -1 197 1.8437713384628296e-02</internalNodes>
          <leafValues>
            -1.0464152693748474e-01 2.0010472834110260e-01</leafValues></_>
        <_>
          <internalNodes>
            0 -1 376 -6.2159015797078609e-03</internalNodes>
          <leafValues>
            -3.3397135138511658e-01 5.8651890605688095e-02</leafValues></_>
        <_>
          <internalNodes>
            0 -1 495 -1.2023328054056037e-05</internalNodes>
          <leafValues>
            1.1260423064231873e-01 -1.7382438480854034e-01</leafValues></_>
        <_>
          <internalNodes>
            0 -1 177 5.1568593829870224e-02</internalNodes>
          <leafValues>
            5.9946142137050629e-02 -3.0758243799209595e-01</leafValues></_>
        <_>
          <internalNodes>
            0 -1 96 -4.4040046632289886e-03</internalNodes>
          <leafValues>
            1.7214046418666840e-01 -1.1338758468627930e-01</leafValues></_>
        <_>
          <internalNodes>
            0 -1 745 -2.2521449136547744e-04</internalNodes>
          <leafValues>
            -2.4422010779380798e-01 8.3247713744640350e-02</leafValues></_>
        <_>
          <internalNodes>
            0 -1 74 1.2960953637957573e-02</internalNodes>
          <leafValues>
            -7.7745765447616577e-02 2.6762223243713379e-01</leafValues></_>
        <_>
          <internalNodes>
            0 -1 258 1.7965489532798529e-03</internalNodes>
          <leafValues>
            4.3270144611597061e-02 -4.6789982914924622e-01</leafValues></_>
        <_>
          <internalNodes>
            0 -1 448 -1.0183561593294144e-02</internalNodes>
          <leafValues>
            1.7941987514495850e-01 -1.0355395823717117e-01</leafValues></_>
        <_>
          <internalNodes>
            0 -1 570 -5.2041662856936455e-03</internalNodes>
          <leafValues>
            2.2279758751392365e-01 -8.0771714448928833e-02</leafValues></_>
        <_>
          <internalNodes>
            0 -1 676 1.8288430874235928e-04</internalNodes>
          <leafValues>
            8.9746490120887756e-02 -1.8976965546607971e-01</leafValues></_>
        <_>
          <internalNodes>
            0 -1 532 -5.5230311118066311e-03</internalNodes>
          <leafValues>
            1.4366351068019867e-01 -1.2450284510850906e-01</leafValues></_>
        <_>
          <internalNodes>
            0 -1 125 -8.3593904972076416e-02</internalNodes>
          <leafValues>
            2.5002607703208923e-01 -6.3125327229499817e-02</leafValues></_>
        <_>
          <internalNodes>
            0 -1 737 4.6538485912606120e-04</internalNodes>
          <leafValues>
            1.0816399008035660e-01 -1.5852528810501099e-01</leafValues></_>
        <_>
          <internalNodes>
            0 -1 393 5.4536394774913788e-02</internalNodes>
          <leafValues>
            7.6603755354881287e-02 -2.5054731965065002e-01</leafValues></_>
        <_>
          <internalNodes>
            0 -1 344 2.3307584342546761e-05</internalNodes>
          <leafValues>
            -1.2746630609035492e-01 1.3290776312351227e-01</leafValues></_>
        <_>
          <internalNodes>
            0 -1 167 -3.3525819890201092e-03</internalNodes>
          <leafValues>
            1.8982596695423126e-01 -8.9153923094272614e-02</leafValues></_>
        <_>
          <internalNodes>
            0 -1 8 -8.9108565589413047e-04</internalNodes>
          <leafValues>
            -1.7425504326820374e-01 9.8547965288162231e-02</leafValues></_>
        <_>
          <internalNodes>
            0 -1 349 1.9963794329669327e-05</internalNodes>
          <leafValues>
            -1.2416510283946991e-01 1.3183642923831940e-01</leafValues></_>
        <_>
          <internalNodes>
            0 -1 701 -5.9565422125160694e-03</internalNodes>
          <leafValues>
            2.8126522898674011e-01 -5.9167671948671341e-02</leafValues></_>
        <_>
          <internalNodes>
            0 -1 453 -3.0972916632890701e-02</internalNodes>
          <leafValues>
            3.2366716861724854e-01 -4.9269929528236389e-02</leafValues></_>
        <_>
          <internalNodes>
            0 -1 559 1.7820138018578291e-03</internalNodes>
          <leafValues>
            4.1140336543321609e-02 -4.0788212418556213e-01</leafValues></_>
        <_>
          <internalNodes>
            0 -1 460 -5.5678226053714752e-03</internalNodes>
          <leafValues>
            2.0906813442707062e-01 -1.1149845272302628e-01</leafValues></_>
        <_>
          <internalNodes>
            0 -1 529 5.8917505666613579e-03</internalNodes>
          <leafValues>
            -8.1067614257335663e-02 2.2718740999698639e-01</leafValues></_>
        <_>
          <internalNodes>
            0 -1 105 -1.1574285104870796e-02</internalNodes>
          <leafValues>
            -7.6132065057754517e-01 2.4649132043123245e-02</leafValues></_>
        <_>
          <internalNodes>
            0 -1 663 -1.0374229401350021e-02</internalNodes>
          <leafValues>
            -6.8729764223098755e-01 1.9329218193888664e-02</leafValues></_>
        <_>
          <internalNodes>
            0 -1 205 -3.5853721201419830e-02</internalNodes>
          <leafValues>
            -5.3373289108276367e-01 2.5490196421742439e-02</leafValues></_>
        <_>
          <internalNodes>
            0 -1 285 1.1866780929267406e-02</internalNodes>
          <leafValues>
            -5.3841333836317062e-02 3.1439116597175598e-01</leafValues></_>
        <_>
          <internalNodes>
            0 -1 382 5.3569732699543238e-04</internalNodes>
          <leafValues>
            -1.0624139010906219e-01 1.4455814659595490e-01</leafValues></_>
        <_>
          <internalNodes>
            0 -1 537 -8.5717909038066864e-02</internalNodes>
          <leafValues>
            2.3896031081676483e-01 -6.3597299158573151e-02</leafValues></_>
        <_>
          <internalNodes>
            0 -1 574 3.4424901008605957e-02</internalNodes>
          <leafValues>
            -9.2983894050121307e-02 1.9555488228797913e-01</leafValues></_>
        <_>
          <internalNodes>
            0 -1 93 -2.5547549128532410e-02</internalNodes>
          <leafValues>
            2.9062342643737793e-01 -5.5383116006851196e-02</leafValues></_>
        <_>
          <internalNodes>
            0 -1 656 3.0034314841032028e-03</internalNodes>
          <leafValues>
            3.9261817932128906e-02 -4.4470474123954773e-01</leafValues></_>
        <_>
          <internalNodes>
            0 -1 536 -8.9185342192649841e-02</internalNodes>
          <leafValues>
            -6.2034571170806885e-01 2.3180739954113960e-02</leafValues></_>
        <_>
          <internalNodes>
            0 -1 685 -5.5252830497920513e-04</internalNodes>
          <leafValues>
            -2.7004382014274597e-01 5.5246688425540924e-02</leafValues></_>
        <_>
          <internalNodes>
            0 -1 723 -6.5293274819850922e-03</internalNodes>
          <leafValues>
            3.7397718429565430e-01 -4.3406214565038681e-02</leafValues></_>
        <_>
          <internalNodes>
            0 -1 716 4.4425203668652102e-05</internalNodes>
          <leafValues>
            1.0580271482467651e-01 -1.4798636734485626e-01</leafValues></_>
        <_>
          <internalNodes>
            0 -1 413 -1.9974812865257263e-02</internalNodes>
          <leafValues>
            -5.2133017778396606e-01 2.6052938774228096e-02</leafValues></_></weakClassifiers></_>
    <!-- stage 11 -->
    <_>
      <maxWeakCount>86</maxWeakCount>
      <stageThreshold>-1.0533933639526367e+00</stageThreshold>
      <weakClassifiers>
        <_>
          <internalNodes>
            0 -1 209 1.0464007034897804e-02</internalNodes>
          <leafValues>
            -1.3724227249622345e-01 4.0540540218353271e-01</leafValues></_>
        <_>
          <internalNodes>
            0 -1 128 4.2618325352668762e-01</internalNodes>
          <leafValues>
            -5.6756712496280670e-02 5.1841193437576294e-01</leafValues></_>
        <_>
          <internalNodes>
            0 -1 157 5.4816398769617081e-03</internalNodes>
          <leafValues>
            -1.7775791883468628e-01 3.0681946873664856e-01</leafValues></_>
        <_>
          <internalNodes>
            0 -1 566 1.1216555535793304e-01</internalNodes>
          <leafValues>
            -6.9132760167121887e-02 3.2471898198127747e-01</leafValues></_>
        <_>
          <internalNodes>
            0 -1 457 -2.4279092031065375e-05</internalNodes>
          <leafValues>
            1.1823951452970505e-01 -1.8005456030368805e-01</leafValues></_>
        <_>
          <internalNodes>
            0 -1 490 -5.8110458776354790e-03</internalNodes>
          <leafValues>
            -2.2775676846504211e-01 9.4780899584293365e-02</leafValues></_>
        <_>
          <internalNodes>
            0 -1 84 5.9721294790506363e-02</internalNodes>
          <leafValues>
            -6.9502413272857666e-02 2.5093117356300354e-01</leafValues></_>
        <_>
          <internalNodes>
            0 -1 173 -1.5608555078506470e-01</internalNodes>
          <leafValues>
            -3.8025411963462830e-01 3.0391816049814224e-02</leafValues></_>
        <_>
          <internalNodes>
            0 -1 291 6.3895434141159058e-02</internalNodes>
          <leafValues>
            7.4379950761795044e-02 -3.7014180421829224e-01</leafValues></_>
        <_>
          <internalNodes>
            0 -1 508 -1.1197560233995318e-03</internalNodes>
          <leafValues>
            1.7036312818527222e-01 -9.9505834281444550e-02</leafValues></_>
        <_>
          <internalNodes>
            0 -1 158 -1.9961278885602951e-03</internalNodes>
          <leafValues>
            1.3214886188507080e-01 -1.4261594414710999e-01</leafValues></_>
        <_>
          <internalNodes>
            0 -1 38 1.8318220973014832e-02</internalNodes>
          <leafValues>
            -9.6226125955581665e-02 1.7677065730094910e-01</leafValues></_>
        <_>
          <internalNodes>
            0 -1 147 -2.6290468667866662e-05</internalNodes>
          <leafValues>
            1.4994205534458160e-01 -1.3233657181262970e-01</leafValues></_>
        <_>
          <internalNodes>
            0 -1 612 2.6156872627325356e-04</internalNodes>
          <leafValues>
            7.9285912215709686e-02 -2.6005232334136963e-01</leafValues></_>
        <_>
          <internalNodes>
            0 -1 594 2.4502125597791746e-05</internalNodes>
          <leafValues>
            -1.2946428358554840e-01 1.3147991895675659e-01</leafValues></_>
        <_>
          <internalNodes>
            0 -1 165 -2.4249374866485596e-02</internalNodes>
          <leafValues>
            1.7569184303283691e-01 -1.0794245451688766e-01</leafValues></_>
        <_>
          <internalNodes>
            0 -1 348 1.2481488287448883e-02</internalNodes>
          <leafValues>
            -7.7494092285633087e-02 2.1091203391551971e-01</leafValues></_>
        <_>
          <internalNodes>
            0 -1 202 -1.8146928399801254e-02</internalNodes>
          <leafValues>
            -6.3752847909927368e-01 1.6280468553304672e-02</leafValues></_>
        <_>
          <internalNodes>
            0 -1 715 2.1620196639560163e-04</internalNodes>
          <leafValues>
            8.7628245353698730e-02 -1.9279438257217407e-01</leafValues></_>
        <_>
          <internalNodes>
            0 -1 603 1.6679408145137131e-04</internalNodes>
          <leafValues>
            -1.1677475273609161e-01 1.4821699261665344e-01</leafValues></_>
        <_>
          <internalNodes>
            0 -1 577 -7.5855599716305733e-03</internalNodes>
          <leafValues>
            2.3482394218444824e-01 -7.9360783100128174e-02</leafValues></_>
        <_>
          <internalNodes>
            0 -1 108 5.8166757225990295e-02</internalNodes>
          <leafValues>
            -1.4400361105799675e-02 7.6015180349349976e-01</leafValues></_>
        <_>
          <internalNodes>
            0 -1 432 -1.3896728865802288e-02</internalNodes>
          <leafValues>
            -3.7131464481353760e-01 4.6938758343458176e-02</leafValues></_>
        <_>
          <internalNodes>
            0 -1 296 1.1237102560698986e-02</internalNodes>
          <leafValues>
            -6.2825024127960205e-02 2.7642118930816650e-01</leafValues></_>
        <_>
          <internalNodes>
            0 -1 628 -2.3867643903940916e-05</internalNodes>
          <leafValues>
            1.5026661753654480e-01 -1.4104518294334412e-01</leafValues></_>
        <_>
          <internalNodes>
            0 -1 99 -1.7046635039150715e-03</internalNodes>
          <leafValues>
            1.3986220955848694e-01 -1.2277560681104660e-01</leafValues></_>
        <_>
          <internalNodes>
            0 -1 468 -6.4093559980392456e-02</internalNodes>
          <leafValues>
            -4.5455914735794067e-01 4.3235886842012405e-02</leafValues></_>
        <_>
          <internalNodes>
            0 -1 445 3.3239258918911219e-03</internalNodes>
          <leafValues>
            -9.6596315503120422e-02 1.7863005399703979e-01</leafValues></_>
        <_>
          <internalNodes>
            0 -1 16 -1.4798652380704880e-02</internalNodes>
          <leafValues>
            -1.8731813132762909e-01 9.0094335377216339e-02</leafValues></_>
        <_>
          <internalNodes>
            0 -1 662 9.2556700110435486e-05</internalNodes>
          <leafValues>
            9.7884804010391235e-02 -1.5964211523532867e-01</leafValues></_>
        <_>
          <internalNodes>
            0 -1 593 2.6325435101171024e-05</internalNodes>
          <leafValues>
            -1.2193418294191360e-01 1.4294157922267914e-01</leafValues></_>
        <_>
          <internalNodes>
            0 -1 79 -1.5650393441319466e-02</internalNodes>
          <leafValues>
            1.8666917085647583e-01 -8.1557631492614746e-02</leafValues></_>
        <_>
          <internalNodes>
            0 -1 646 4.8007532022893429e-03</internalNodes>
          <leafValues>
            -8.1873983144760132e-02 1.9042892754077911e-01</leafValues></_>
        <_>
          <internalNodes>
            0 -1 652 3.4052066621370614e-04</internalNodes>
          <leafValues>
            8.0485336482524872e-02 -1.8107491731643677e-01</leafValues></_>
        <_>
          <internalNodes>
            0 -1 617 1.0369045659899712e-02</internalNodes>
          <leafValues>
            -2.6612404733896255e-02 5.7575708627700806e-01</leafValues></_>
        <_>
          <internalNodes>
            0 -1 657 -4.2282408103346825e-03</internalNodes>
          <leafValues>
            2.3277448117733002e-01 -6.4482100307941437e-02</leafValues></_>
        <_>
          <internalNodes>
            0 -1 688 1.4664994087070227e-03</internalNodes>
          <leafValues>
            -7.0444725453853607e-02 2.3467090725898743e-01</leafValues></_>
        <_>
          <internalNodes>
            0 -1 380 7.6148903463035822e-04</internalNodes>
          <leafValues>
            4.8543278127908707e-02 -3.2596597075462341e-01</leafValues></_>
        <_>
          <internalNodes>
            0 -1 430 -6.1259015637915581e-05</internalNodes>
          <leafValues>
            1.0448317974805832e-01 -1.5000063180923462e-01</leafValues></_>
        <_>
          <internalNodes>
            0 -1 660 -5.1265158690512180e-03</internalNodes>
          <leafValues>
            -4.3478274345397949e-01 3.4251302480697632e-02</leafValues></_>
        <_>
          <internalNodes>
            0 -1 459 -1.9525598734617233e-02</internalNodes>
          <leafValues>
            2.4273605644702911e-01 -7.0776887238025665e-02</leafValues></_>
        <_>
          <internalNodes>
            0 -1 305 -2.7269944548606873e-03</internalNodes>
          <leafValues>
            1.5160985291004181e-01 -1.2128219008445740e-01</leafValues></_>
        <_>
          <internalNodes>
